-0.23544636368751526, 0.1575670838356018, -0.6195142865180969, 0.027133192867040634, 0.5451980829238892, -0.7153664231300354, 0.8263567090034485, 0.16298960149288177, -0.8572220802307129, -0.09775985777378082, -0.1339767575263977, -0.2448512464761734, -0.17455948889255524, -0.15274061262607574, 0.5086446404457092, 0.07267212122678757, -0.555777907371521, 0.4422222673892975, 0.15668095648288727, 0.11392118781805038, -0.9121273756027222, 0.16820096969604492, -0.11068914830684662, -0.09059921652078629, 0.08203914761543274, 0.056702375411987305, -0.33582624793052673, -0.10789193212985992, 0.05383388325572014, -0.3637455105781555, -1.3794437646865845, 0.4510405361652374, -0.04815323278307915, -0.29029276967048645, -1.0672247409820557, 0.8124457001686096, -0.7264404296875, -1.210401177406311, 0.9368804693222046, -0.10246928036212921, 0.1502235233783722, 0.06218279153108597, 0.6073053479194641, -0.07812875509262085, -1.4255683422088623, 0.6237536072731018, 0.29191461205482483, 0.030883651226758957, -0.5701853036880493, -0.3129733204841614, -0.5415454506874084, 0.42503657937049866, 0.0777759999036789, -0.5946389436721802, 0.33944711089134216, -0.2278178185224533, -0.10150652378797531, -0.05405782163143158, 0.6169745326042175, -0.16079087555408478, 0.595824658870697, 0.6750678420066833, -0.6724342107772827, 0.08168194442987442