0.041086114943027496, -0.722404956817627, -0.4925764501094818, -0.48175543546676636, 0.0315285250544548, 0.4042249917984009, 0.23726660013198853, 0.25423213839530945, 0.045655060559511185, 1.0310767889022827, -0.2018793821334839, 0.44542375206947327, -0.7230409979820251, 0.3415437638759613, -0.6059350967407227, 0.08606627583503723, 0.7013974189758301, -0.04837139695882797, -2.0430257320404053, -0.4977174699306488, 0.5207452774047852, -0.16311319172382355, 0.775209367275238, 0.37742602825164795, 0.09501440078020096, -0.8967920541763306, -0.6134390830993652, -1.1946005821228027, -0.058753058314323425, 0.7968305945396423, 0.35396912693977356, 0.2232968956232071, 0.6527765393257141, -0.16954275965690613, -0.0007667011232115328, 0.6800723671913147, -0.9662852883338928, -0.33269718289375305, -0.47738322615623474, 0.38768166303634644, 0.005635937675833702, -0.0007039739866741002, -7.759183063171804e-06, 0.0013606821885332465, -0.007634986657649279, -0.0038234032690525055, -0.0029611941426992416, -0.0017696539871394634, 0.14755117893218994, 0.6048029661178589, -1.2372797727584839, 0.2925848960876465, -0.47861015796661377, -0.47577470541000366, 0.25880685448646545, 0.5891882181167603, 0.35044172406196594, -0.8828901648521423, -0.6128169894218445, -0.8446526527404785, 0.4298241138458252, 0.5208004117012024, 0.07528170943260193, -0.171330526471138