-0.6352249383926392, 0.14208842813968658, 0.051375169306993484, -0.6053248643875122, 0.44288793206214905, -0.36865243315696716, -0.7909515500068665, 0.31884828209877014, -0.1564262956380844, 0.07719187438488007, 0.2162165492773056, -0.7111771702766418, 0.871928870677948, 0.23279517889022827, 0.051528073847293854, -0.8625809550285339, 1.2804585695266724, -0.4273074269294739, -0.4000847339630127, -0.9892919659614563, 1.0200239419937134, -1.034096121788025, 0.4921919107437134, -1.174088954925537, -0.4488494396209717, -0.768123984336853, -0.6366536021232605, 0.008337428793311119, 0.3082275688648224, -0.10476689785718918, -0.46056702733039856, 0.2840881645679474, 0.8709464073181152, 0.23558251559734344, -0.056074321269989014, -0.7309049963951111, 0.8626611232757568, -0.09319750964641571, 0.06125025078654289, -0.36530062556266785, -0.6915695071220398, 0.04051338881254196, -0.22769375145435333, -0.16768264770507812, 0.2745574414730072, 0.7414829134941101, 0.9007530212402344, -0.23277084529399872, 0.6726627945899963, -0.028231650590896606, 0.3469060957431793, -0.21764643490314484, 0.7500233054161072, -0.1097327172756195, 0.36143818497657776, -0.3150274157524109, 0.0024698092602193356, 0.10990463197231293, 0.3404867649078369, 0.6547887921333313, 0.33627331256866455, -0.0019807221833616495, 0.44927021861076355, 0.08905432373285294