-0.46799781918525696, -0.17206768691539764, 0.733189582824707, 0.1332598328590393, 0.4098805785179138, 0.8278660178184509, -1.3201886415481567, -0.235870361328125, -0.32876136898994446, 0.3385457396507263, 0.034335266798734665, 0.37492677569389343, 0.06328824162483215, 0.033817216753959656, -0.20063824951648712, -0.1091950461268425, -0.5363465547561646, 1.3744429349899292, -0.03297285735607147, -0.1958714723587036, -0.3080538511276245, -0.026769930496811867, 0.10406999289989471, -0.3657565116882324, -0.06112455204129219, 0.04942748323082924, 0.42291900515556335, -0.34128618240356445, 0.19389782845973969, 0.47370973229408264, 0.5984413027763367, -0.15406262874603271, -0.021937232464551926, 0.1471957117319107, 0.9242631793022156, -0.3275660276412964, 0.8119329214096069, 1.020022988319397, 0.0794936865568161, 0.34341713786125183, -0.20883750915527344, -0.21061736345291138, -0.3533891439437866, 0.0014107131864875555, 0.44014212489128113, -0.35746312141418457, -0.2359030842781067, 0.2959434986114502, -0.26415112614631653, 0.19786123931407928, 0.5184938311576843, -0.3179996907711029, 0.7001591324806213, 0.5786905884742737, -0.26254791021347046, -0.6983985304832458, -0.17204634845256805, 0.095846027135849, -0.34666377305984497, 0.06643273681402206, 0.9588441848754883, -0.3632655739784241, 0.04537571966648102, -0.07005070149898529