-4.2655545939851436e-07, -0.0012543421471491456, 0.018894048407673836, -0.1319628357887268, 3.9060702761162247e-07, 0.02817869372665882, -0.042671333998441696, 0.038219865411520004, -4.6909966044950124e-07, 0.150529146194458, -0.004136137198656797, 0.0012989420210942626, -4.6217445515139843e-07, -0.004510029219090939, 0.005733623635023832, 0.011043808422982693, -8.651120424474357e-07, 0.5928109288215637, -0.09453369677066803, 0.8993093371391296, 4.2337561012573133e-07, -0.1124008372426033, 0.2684577703475952, -0.09218800067901611, -2.372058531818766e-07, -0.20862963795661926, 0.1112312600016594, 0.17826278507709503, -8.688676871315693e-07, 0.11955650895833969, 0.055627454072237015, 0.08716642111539841, 3.9522763017885154e-07, 8.412087481701747e-05, -0.018407119438052177, 0.001655368134379387, -6.518967552437971e-07, -0.02744540199637413, -0.2450181096792221, -0.6066173911094666, -2.4911651053116657e-07, -0.05725611746311188, 0.04246818274259567, -0.025014715269207954, -6.235485443539801e-07, 0.0363629050552845, -0.02852296456694603, 0.02796505019068718, -8.201701007237716e-07, 0.055251311510801315, 0.07183121144771576, -0.8934746980667114, 3.8723601392121054e-07, 0.09502040594816208, -0.11967058479785919, 0.05170181021094322, -1.0321930403733859e-06, 0.8486507534980774, 0.040311019867658615, 0.5929086804389954, 9.530124884804536e-07, 0.05240585282444954, -0.7664315104484558, -0.03287951648235321