2.975016002437769e-07, -0.1425243616104126, 0.049499642103910446, -0.0732329860329628, -9.596386689736391e-07, 0.06158895045518875, -0.2663171887397766, -0.0757112205028534, 1.0484862400517159e-07, 0.002091275528073311, -0.6103817820549011, 0.8398525714874268, -4.931633839078131e-07, -0.683623194694519, 0.8531436324119568, 0.08646505326032639, 5.1861707817124625e-08, 0.13930541276931763, 0.11334586143493652, -0.4546102285385132, 4.993176503376162e-07, 0.13728469610214233, 0.24610073864459991, 0.0661843940615654, -2.491680390903639e-07, 0.1425403654575348, -0.46200552582740784, -0.2516781687736511, 1.0056406836156384e-06, -0.4762914180755615, 0.06263606995344162, 0.04844995215535164, 4.418954091534033e-08, 0.23974187672138214, -0.09626702964305878, -0.7677150964736938, 9.900369377646712e-07, -0.11221416294574738, 0.46195968985557556, 0.2369442880153656, 7.676473501305736e-07, 0.3749607503414154, -0.16552726924419403, -0.04306865483522415, -9.309701454185415e-07, -0.19148874282836914, -0.4795849621295929, 0.07350405305624008, 2.3117297587305075e-07, -0.2123516947031021, -0.06840254366397858, 1.4573968648910522, 5.26820997492905e-07, -0.04867172613739967, -1.6673492193222046, -0.5856531262397766, 2.8033380772285454e-07, 0.4305386543273926, 0.0885833129286766, -0.2485148161649704, 8.839626843837323e-07, 0.10821513831615448, -0.015151426196098328, 0.06812569499015808