-1.0461184978485107, 0.21574534475803375, 0.5063896179199219, -0.02614166960120201, -0.30586034059524536, -0.05103106424212456, -0.8083710670471191, -0.4189643859863281, -1.9863264560699463, -0.5955328345298767, 0.7706283330917358, 0.22290757298469543, -0.06443554908037186, 0.6533984541893005, -0.12751050293445587, 0.2970573306083679, 0.9395730495452881, 0.06518993526697159, 0.762017011642456, 0.17769062519073486, -0.7029526829719543, -0.0432923398911953, 0.764629602432251, 0.40692752599716187, 0.4195738732814789, 0.34741929173469543, -0.35170525312423706, 0.4365067780017853, 0.28286609053611755, 0.5977577567100525, -0.2856975197792053, -0.2428249716758728, 0.6519420146942139, 0.5873119235038757, 0.5876061916351318, 0.003032284090295434, -0.85682612657547, -0.1390334814786911, 0.26781749725341797, 0.4976826012134552, 1.6339740753173828, 0.8702966570854187, 0.569105863571167, -0.33874616026878357, -0.3465130031108856, 0.07219766080379486, 0.2755884826183319, 0.5485644936561584, 0.047453559935092926, -0.08643600344657898, -0.26666295528411865, -0.48789799213409424, -0.12656976282596588, -0.4223184585571289, -0.731796145439148, -0.5626572966575623, -0.5157415866851807, 0.9933133721351624, 0.04550105705857277, -0.5479010939598083, 1.0657333135604858, -0.23877176642417908, -0.5235320329666138, -0.0043228561989963055