-1.7040882110595703, 1.2707256078720093, -0.18252336978912354, 0.545997679233551, 0.02536979503929615, -0.09395711869001389, 0.31135010719299316, 0.0301828496158123, 0.3953937292098999, -1.1076838970184326, -0.8936065435409546, 0.42029237747192383, 0.6359592080116272, -0.31554776430130005, -0.5453553199768066, 0.2239711880683899, 0.32578280568122864, -0.1923895925283432, -0.29288938641548157, -0.2329009622335434, 0.36256393790245056, 0.30575060844421387, 0.15533174574375153, 0.10534658282995224, 0.1863546222448349, -0.00524144945666194, 0.10144585371017456, -0.5100516676902771, 0.29391032457351685, 1.3900787830352783, 1.0047019720077515, -0.3158719837665558, 0.4134792387485504, 0.40088197588920593, -0.8133574724197388, -0.5014734268188477, 0.9731453657150269, -0.9055764675140381, 0.1370268315076828, 0.38030457496643066, 1.7598623571757344e-06, -2.4450205273751635e-06, -5.52538085685228e-06, -5.38127835625346e-07, -8.988611739368935e-07, 2.322319687664276e-06, -1.785751805982727e-06, -2.2636158973909914e-05, 0.25485551357269287, -0.00032982719130814075, -0.13196730613708496, -0.4187627136707306, -0.1960344761610031, -0.2423912137746811, 0.3281439244747162, -1.8752398490905762, -0.11954877525568008, 0.12027560919523239, -0.038066212087869644, 0.4499577283859253, 0.45927441120147705, 0.860145092010498, -0.5969869494438171, 0.05387264862656593