-0.18475483357906342, 0.13585038483142853, -1.1000075340270996, -0.291024386882782, 0.05817389115691185, 0.549474835395813, -0.001707542221993208, -2.167273998260498, 0.5431622266769409, 0.07108911871910095, 0.0005037704249843955, -0.34388214349746704, -0.13089485466480255, -1.1022599935531616, 1.900644929264672e-05, 0.8381386399269104, 0.12901829183101654, -0.07473557442426682, -0.6469498872756958, -0.27720335125923157, -0.4398209750652313, 0.9354821443557739, 0.7517809271812439, 0.09705553948879242, -0.9441092014312744, 0.2303895503282547, 0.6051355600357056, 0.23264038562774658, 0.3854774832725525, 0.30983036756515503, 0.08951795846223831, -0.2536415755748749, 0.3578159213066101, 0.6399933695793152, 0.05418889597058296, 0.6610260009765625, 0.1336238831281662, -0.6307737827301025, 0.5254568457603455, -0.4876421093940735, 0.008770715445280075, 1.052217960357666, -0.23585449159145355, -0.4566035568714142, -0.5229539275169373, -0.9833534359931946, 0.3880743086338043, -0.08378385752439499, 0.8196831345558167, -0.39053618907928467, 0.4810142517089844, -0.26000720262527466, 0.5182767510414124, -0.21619562804698944, -0.9323294758796692, -0.10219904035329819, 0.38200870156288147, -0.7526816129684448, 0.07960981875658035, 0.07766494899988174, 0.320965439081192, 0.3665790259838104, -0.4685908854007721, 0.6479427218437195