-1.1042766345781274e-06, -0.31685495376586914, -0.07543294131755829, -4.141436576843262, 2.4029989731388923e-07, -0.08394302427768707, 0.49572256207466125, 1.6117619276046753, -5.041677582084958e-07, -0.1734560877084732, 0.5725045800209045, -0.3773132562637329, 1.0803049690366606e-06, 0.6224499940872192, -0.3487657308578491, 0.004967737011611462, -3.982807470492844e-07, -0.5814513564109802, 0.1165834367275238, -0.3334965407848358, -9.912797622746439e-07, 0.11788247525691986, -0.477804034948349, 0.15929816663265228, -9.963347338270978e-07, 0.17252153158187866, 0.1701248288154602, -0.6735464334487915, 7.941541468881042e-08, 0.154959037899971, 0.8520544767379761, 0.026860026642680168, -4.7669539071648614e-07, -9.689563739812002e-06, 0.018695538863539696, -0.6986518502235413, -2.693075771276199e-07, 0.02877325378358364, 0.5790433883666992, -1.5107449293136597, -9.929548241416342e-07, 0.37333548069000244, -0.6974362134933472, 0.6436113119125366, -2.1638378200350417e-07, -0.7475591897964478, 0.25177377462387085, 0.010480043478310108, 5.016670456825523e-07, -0.044288743287324905, -0.1970243602991104, 0.135748028755188, 1.0922363458121254e-07, -0.2040710747241974, 0.5194768905639648, -0.024196090176701546, 4.929608508064121e-07, 0.35886573791503906, -0.14164817333221436, 0.7183045744895935, 5.993072704768565e-08, -0.1267407238483429, 0.4918203353881836, 0.12903347611427307